Formula:  Sepal_Width ~ Petal_Length
Number of features:  1
Features:  Petal_Length
Feature importances:  (1,[0],[1.0])
Max Depth:  5
Number of trees:  20
Tree weights:  1 1 1 1 1 1 1 1 1 1 1 1 1 1 1 1 1 1 1 1
 RandomForestRegressionModel (uid=rfr_0ed8e22ca1a3) with 20 trees
  Tree 0 (weight 1.0):
    If (feature 0 <= 2.45)
     If (feature 0 <= 1.45)
      If (feature 0 <= 1.25)
       Predict: 3.466666666666667
      Else (feature 0 > 1.25)
       If (feature 0 <= 1.35)
        Predict: 3.34
       Else (feature 0 > 1.35)
        Predict: 3.2833333333333328
     Else (feature 0 > 1.45)
      If (feature 0 <= 1.7999999999999998)
       If (feature 0 <= 1.55)
        Predict: 3.5642857142857145
       Else (feature 0 > 1.55)
        If (feature 0 <= 1.65)
         Predict: 3.383333333333333
        Else (feature 0 > 1.65)
         Predict: 3.4499999999999993
      Else (feature 0 > 1.7999999999999998)
       Predict: 3.799999999999997
    Else (feature 0 > 2.45)
     If (feature 0 <= 4.05)
      If (feature 0 <= 3.6500000000000004)
       If (feature 0 <= 3.55)
        If (feature 0 <= 3.4)
         Predict: 2.433333333333333
        Else (feature 0 > 3.4)
         Predict: 2.6000000000000005
       Else (feature 0 > 3.55)
        Predict: 2.9000000000000004
      Else (feature 0 > 3.6500000000000004)
       If (feature 0 <= 3.95)
        Predict: 2.425
       Else (feature 0 > 3.95)
        Predict: 2.3333333333333335
     Else (feature 0 > 4.05)
      If (feature 0 <= 5.65)
       If (feature 0 <= 4.55)
        If (feature 0 <= 4.35)
         Predict: 2.9000000000000004
        Else (feature 0 > 4.35)
         Predict: 2.753333333333333
       Else (feature 0 > 4.55)
        If (feature 0 <= 4.95)
         Predict: 3.075
        Else (feature 0 > 4.95)
         Predict: 2.8958333333333335
      Else (feature 0 > 5.65)
       If (feature 0 <= 6.35)
        If (feature 0 <= 5.85)
         Predict: 3.15
        Else (feature 0 > 5.85)
         Predict: 3.055555555555555
       Else (feature 0 > 6.35)
        Predict: 3.3200000000000003
  Tree 1 (weight 1.0):
    If (feature 0 <= 2.45)
     If (feature 0 <= 1.65)
      If (feature 0 <= 1.55)
       If (feature 0 <= 1.45)
        If (feature 0 <= 1.25)
         Predict: 3.533333333333333
        Else (feature 0 > 1.25)
         Predict: 3.35
       Else (feature 0 > 1.45)
        Predict: 3.47
      Else (feature 0 > 1.55)
       Predict: 3.25
     Else (feature 0 > 1.65)
      If (feature 0 <= 1.7999999999999998)
       Predict: 3.5666666666666664
      Else (feature 0 > 1.7999999999999998)
       Predict: 3.8000000000000007
    Else (feature 0 > 2.45)
     If (feature 0 <= 5.65)
      If (feature 0 <= 4.05)
       If (feature 0 <= 3.55)
        If (feature 0 <= 3.4)
         Predict: 2.4
        Else (feature 0 > 3.4)
         Predict: 2.0000000000000004
       Else (feature 0 > 3.55)
        If (feature 0 <= 3.6500000000000004)
         Predict: 2.9
        Else (feature 0 > 3.6500000000000004)
         Predict: 2.5000000000000004
      Else (feature 0 > 4.05)
       If (feature 0 <= 4.45)
        If (feature 0 <= 4.35)
         Predict: 2.8428571428571425
        Else (feature 0 > 4.35)
         Predict: 2.6285714285714286
       Else (feature 0 > 4.45)
        If (feature 0 <= 4.85)
         Predict: 2.968421052631579
        Else (feature 0 > 4.85)
         Predict: 2.835714285714286
     Else (feature 0 > 5.65)
      If (feature 0 <= 6.05)
       Predict: 3.233333333333333
      Else (feature 0 > 6.05)
       Predict: 3.799999999999999
  Tree 2 (weight 1.0):
    If (feature 0 <= 2.45)
     If (feature 0 <= 1.65)
      If (feature 0 <= 1.25)
       Predict: 3.6
      Else (feature 0 > 1.25)
       If (feature 0 <= 1.35)
        Predict: 2.98
       Else (feature 0 > 1.35)
        If (feature 0 <= 1.55)
         Predict: 3.5052631578947366
        Else (feature 0 > 1.55)
         Predict: 3.311111111111111
     Else (feature 0 > 1.65)
      If (feature 0 <= 1.7999999999999998)
       Predict: 3.78
      Else (feature 0 > 1.7999999999999998)
       Predict: 3.3999999999999986
    Else (feature 0 > 2.45)
     If (feature 0 <= 4.05)
      If (feature 0 <= 3.4)
       Predict: 2.4
      Else (feature 0 > 3.4)
       If (feature 0 <= 3.95)
        If (feature 0 <= 3.55)
         Predict: 2.6
        Else (feature 0 > 3.55)
         Predict: 2.814285714285714
       Else (feature 0 > 3.95)
        Predict: 2.4333333333333336
     Else (feature 0 > 4.05)
      If (feature 0 <= 5.15)
       If (feature 0 <= 4.85)
        If (feature 0 <= 4.45)
         Predict: 2.894117647058824
        Else (feature 0 > 4.45)
         Predict: 3.030769230769231
       Else (feature 0 > 4.85)
        If (feature 0 <= 5.05)
         Predict: 2.71
        Else (feature 0 > 5.05)
         Predict: 2.9000000000000004
      Else (feature 0 > 5.15)
       If (feature 0 <= 6.05)
        If (feature 0 <= 5.65)
         Predict: 3.0214285714285714
        Else (feature 0 > 5.65)
         Predict: 3.144444444444444
       Else (feature 0 > 6.05)
        Predict: 3.5999999999999943
  Tree 3 (weight 1.0):
    If (feature 0 <= 2.45)
     If (feature 0 <= 1.45)
      If (feature 0 <= 1.25)
       Predict: 3.5
      Else (feature 0 > 1.25)
       If (feature 0 <= 1.35)
        Predict: 3.3375000000000004
       Else (feature 0 > 1.35)
        Predict: 3.392307692307692
     Else (feature 0 > 1.45)
      If (feature 0 <= 1.55)
       Predict: 3.6529411764705886
      Else (feature 0 > 1.55)
       If (feature 0 <= 1.65)
        Predict: 3.31
       Else (feature 0 > 1.65)
        If (feature 0 <= 1.7999999999999998)
         Predict: 3.7399999999999998
        Else (feature 0 > 1.7999999999999998)
         Predict: 3.5999999999999988
    Else (feature 0 > 2.45)
     If (feature 0 <= 4.55)
      If (feature 0 <= 3.55)
       If (feature 0 <= 3.4)
        Predict: 2.3
       Else (feature 0 > 3.4)
        Predict: 2.15
      Else (feature 0 > 3.55)
       If (feature 0 <= 4.05)
        If (feature 0 <= 3.6500000000000004)
         Predict: 2.9
        Else (feature 0 > 3.6500000000000004)
         Predict: 2.576923076923077
       Else (feature 0 > 4.05)
        If (feature 0 <= 4.35)
         Predict: 2.8499999999999996
        Else (feature 0 > 4.35)
         Predict: 2.6533333333333338
     Else (feature 0 > 4.55)
      If (feature 0 <= 5.25)
       If (feature 0 <= 4.85)
        If (feature 0 <= 4.65)
         Predict: 2.966666666666667
        Else (feature 0 > 4.65)
         Predict: 3.0545454545454547
       Else (feature 0 > 4.85)
        If (feature 0 <= 5.15)
         Predict: 2.7764705882352945
        Else (feature 0 > 5.15)
         Predict: 3.0
      Else (feature 0 > 5.25)
       If (feature 0 <= 5.45)
        Predict: 3.25
       Else (feature 0 > 5.45)
        If (feature 0 <= 5.65)
         Predict: 2.9499999999999997
        Else (feature 0 > 5.65)
         Predict: 3.1277777777777778
  Tree 4 (weight 1.0):
    If (feature 0 <= 1.7999999999999998)
     If (feature 0 <= 1.45)
      If (feature 0 <= 1.25)
       Predict: 3.6666666666666665
      Else (feature 0 > 1.25)
       If (feature 0 <= 1.35)
        Predict: 3.1666666666666665
       Else (feature 0 > 1.35)
        Predict: 3.325
     Else (feature 0 > 1.45)
      If (feature 0 <= 1.55)
       Predict: 3.5882352941176467
      Else (feature 0 > 1.55)
       If (feature 0 <= 1.65)
        Predict: 3.2750000000000004
       Else (feature 0 > 1.65)
        Predict: 3.8000000000000007
    Else (feature 0 > 1.7999999999999998)
     If (feature 0 <= 4.05)
      If (feature 0 <= 3.55)
       If (feature 0 <= 3.4)
        If (feature 0 <= 3.15)
         Predict: 2.5
        Else (feature 0 > 3.15)
         Predict: 2.4000000000000004
       Else (feature 0 > 3.4)
        Predict: 2.0
      Else (feature 0 > 3.55)
       If (feature 0 <= 3.6500000000000004)
        Predict: 2.9
       Else (feature 0 > 3.6500000000000004)
        If (feature 0 <= 3.95)
         Predict: 2.4833333333333334
        Else (feature 0 > 3.95)
         Predict: 2.58
     Else (feature 0 > 4.05)
      If (feature 0 <= 5.15)
       If (feature 0 <= 4.85)
        If (feature 0 <= 4.65)
         Predict: 2.904347826086957
        Else (feature 0 > 4.65)
         Predict: 3.0833333333333335
       Else (feature 0 > 4.85)
        If (feature 0 <= 4.95)
         Predict: 2.6
        Else (feature 0 > 4.95)
         Predict: 2.741666666666667
      Else (feature 0 > 5.15)
       If (feature 0 <= 5.25)
        Predict: 3.0
       Else (feature 0 > 5.25)
        If (feature 0 <= 5.45)
         Predict: 3.25
        Else (feature 0 > 5.45)
         Predict: 3.0535714285714284
  Tree 5 (weight 1.0):
    If (feature 0 <= 2.45)
     If (feature 0 <= 1.65)
      If (feature 0 <= 1.25)
       Predict: 3.7
      Else (feature 0 > 1.25)
       If (feature 0 <= 1.35)
        Predict: 3.04
       Else (feature 0 > 1.35)
        If (feature 0 <= 1.55)
         Predict: 3.444827586206897
        Else (feature 0 > 1.55)
         Predict: 3.3800000000000012
     Else (feature 0 > 1.65)
      If (feature 0 <= 1.7999999999999998)
       Predict: 3.66
      Else (feature 0 > 1.7999999999999998)
       Predict: 3.799999999999999
    Else (feature 0 > 2.45)
     If (feature 0 <= 4.05)
      If (feature 0 <= 3.95)
       If (feature 0 <= 3.15)
        Predict: 2.5
       Else (feature 0 > 3.15)
        If (feature 0 <= 3.55)
         Predict: 2.15
        Else (feature 0 > 3.55)
         Predict: 2.4
      Else (feature 0 > 3.95)
       Predict: 2.5444444444444443
     Else (feature 0 > 4.05)
      If (feature 0 <= 4.45)
       If (feature 0 <= 4.35)
        If (feature 0 <= 4.15)
         Predict: 2.9
        Else (feature 0 > 4.15)
         Predict: 2.8857142857142857
       Else (feature 0 > 4.35)
        Predict: 2.7375
      Else (feature 0 > 4.45)
       If (feature 0 <= 4.85)
        If (feature 0 <= 4.55)
         Predict: 3.1333333333333333
        Else (feature 0 > 4.55)
         Predict: 3.038888888888889
       Else (feature 0 > 4.85)
        If (feature 0 <= 5.05)
         Predict: 2.6285714285714286
        Else (feature 0 > 5.05)
         Predict: 3.0
  Tree 6 (weight 1.0):
    If (feature 0 <= 2.45)
     If (feature 0 <= 1.65)
      If (feature 0 <= 1.45)
       If (feature 0 <= 1.25)
        Predict: 3.6
       Else (feature 0 > 1.25)
        If (feature 0 <= 1.35)
         Predict: 3.2
        Else (feature 0 > 1.35)
         Predict: 3.3200000000000003
      Else (feature 0 > 1.45)
       If (feature 0 <= 1.55)
        Predict: 3.5416666666666665
       Else (feature 0 > 1.55)
        Predict: 3.2700000000000005
     Else (feature 0 > 1.65)
      If (feature 0 <= 1.7999999999999998)
       Predict: 3.7
      Else (feature 0 > 1.7999999999999998)
       Predict: 3.6666666666666665
    Else (feature 0 > 2.45)
     If (feature 0 <= 4.45)
      If (feature 0 <= 3.55)
       If (feature 0 <= 3.4)
        If (feature 0 <= 3.15)
         Predict: 2.5
        Else (feature 0 > 3.15)
         Predict: 2.4
       Else (feature 0 > 3.4)
        Predict: 2.0000000000000004
      Else (feature 0 > 3.55)
       If (feature 0 <= 4.35)
        If (feature 0 <= 4.05)
         Predict: 2.62
        Else (feature 0 > 4.05)
         Predict: 2.883333333333333
       Else (feature 0 > 4.35)
        Predict: 2.3000000000000007
     Else (feature 0 > 4.45)
      If (feature 0 <= 5.25)
       If (feature 0 <= 4.85)
        If (feature 0 <= 4.55)
         Predict: 3.1999999999999997
        Else (feature 0 > 4.55)
         Predict: 2.9499999999999997
       Else (feature 0 > 4.85)
        If (feature 0 <= 5.05)
         Predict: 2.55
        Else (feature 0 > 5.05)
         Predict: 2.8615384615384616
      Else (feature 0 > 5.25)
       If (feature 0 <= 5.85)
        If (feature 0 <= 5.65)
         Predict: 3.1090909090909093
        Else (feature 0 > 5.65)
         Predict: 2.75
       Else (feature 0 > 5.85)
        If (feature 0 <= 6.35)
         Predict: 3.1888888888888887
        Else (feature 0 > 6.35)
         Predict: 3.3499999999999988
  Tree 7 (weight 1.0):
    If (feature 0 <= 2.45)
     If (feature 0 <= 1.45)
      If (feature 0 <= 1.35)
       If (feature 0 <= 1.25)
        Predict: 3.3333333333333335
       Else (feature 0 > 1.25)
        Predict: 2.9899999999999998
      Else (feature 0 > 1.35)
       Predict: 3.333333333333334
     Else (feature 0 > 1.45)
      If (feature 0 <= 1.55)
       Predict: 3.8000000000000003
      Else (feature 0 > 1.55)
       If (feature 0 <= 1.7999999999999998)
        If (feature 0 <= 1.65)
         Predict: 3.525
        Else (feature 0 > 1.65)
         Predict: 3.6333333333333315
       Else (feature 0 > 1.7999999999999998)
        Predict: 3.3999999999999986
    Else (feature 0 > 2.45)
     If (feature 0 <= 4.05)
      If (feature 0 <= 3.55)
       If (feature 0 <= 3.15)
        Predict: 2.5
       Else (feature 0 > 3.15)
        If (feature 0 <= 3.4)
         Predict: 2.3
        Else (feature 0 > 3.4)
         Predict: 2.1999999999999997
      Else (feature 0 > 3.55)
       If (feature 0 <= 3.95)
        Predict: 2.55
       Else (feature 0 > 3.95)
        Predict: 2.366666666666666
     Else (feature 0 > 4.05)
      If (feature 0 <= 5.65)
       If (feature 0 <= 4.75)
        If (feature 0 <= 4.45)
         Predict: 2.8538461538461535
        Else (feature 0 > 4.45)
         Predict: 3.0750000000000006
       Else (feature 0 > 4.75)
        If (feature 0 <= 5.05)
         Predict: 2.727272727272727
        Else (feature 0 > 5.05)
         Predict: 2.911111111111111
      Else (feature 0 > 5.65)
       If (feature 0 <= 6.35)
        If (feature 0 <= 5.85)
         Predict: 3.125
        Else (feature 0 > 5.85)
         Predict: 3.1375
       Else (feature 0 > 6.35)
        Predict: 2.9200000000000004
  Tree 8 (weight 1.0):
    If (feature 0 <= 2.45)
     If (feature 0 <= 1.45)
      If (feature 0 <= 1.25)
       Predict: 3.5200000000000005
      Else (feature 0 > 1.25)
       If (feature 0 <= 1.35)
        Predict: 3.3333333333333335
       Else (feature 0 > 1.35)
        Predict: 3.2882352941176474
     Else (feature 0 > 1.45)
      If (feature 0 <= 1.55)
       Predict: 3.7818181818181817
      Else (feature 0 > 1.55)
       If (feature 0 <= 1.65)
        Predict: 3.325
       Else (feature 0 > 1.65)
        If (feature 0 <= 1.7999999999999998)
         Predict: 3.516666666666667
        Else (feature 0 > 1.7999999999999998)
         Predict: 3.5999999999999996
    Else (feature 0 > 2.45)
     If (feature 0 <= 4.15)
      If (feature 0 <= 4.05)
       If (feature 0 <= 3.95)
        If (feature 0 <= 3.55)
         Predict: 2.3
        Else (feature 0 > 3.55)
         Predict: 2.66
       Else (feature 0 > 3.95)
        Predict: 2.3
      Else (feature 0 > 4.05)
       Predict: 2.700000000000001
     Else (feature 0 > 4.15)
      If (feature 0 <= 5.85)
       If (feature 0 <= 5.15)
        If (feature 0 <= 4.95)
         Predict: 2.953125
        Else (feature 0 > 4.95)
         Predict: 2.730769230769231
       Else (feature 0 > 5.15)
        If (feature 0 <= 5.55)
         Predict: 3.1500000000000004
        Else (feature 0 > 5.55)
         Predict: 2.946153846153846
      Else (feature 0 > 5.85)
       If (feature 0 <= 6.05)
        Predict: 3.1375
       Else (feature 0 > 6.05)
        Predict: 3.233333333333333
  Tree 9 (weight 1.0):
    If (feature 0 <= 1.7999999999999998)
     If (feature 0 <= 1.45)
      If (feature 0 <= 1.25)
       Predict: 3.533333333333333
      Else (feature 0 > 1.25)
       If (feature 0 <= 1.35)
        Predict: 3.2125000000000004
       Else (feature 0 > 1.35)
        Predict: 3.2666666666666666
     Else (feature 0 > 1.45)
      If (feature 0 <= 1.55)
       Predict: 3.5000000000000004
      Else (feature 0 > 1.55)
       If (feature 0 <= 1.65)
        Predict: 3.25
       Else (feature 0 > 1.65)
        Predict: 3.375
    Else (feature 0 > 1.7999999999999998)
     If (feature 0 <= 4.05)
      If (feature 0 <= 3.75)
       If (feature 0 <= 3.4)
        Predict: 2.3333333333333335
       Else (feature 0 > 3.4)
        If (feature 0 <= 3.55)
         Predict: 2.0
        Else (feature 0 > 3.55)
         Predict: 2.4000000000000004
      Else (feature 0 > 3.75)
       Predict: 2.5714285714285716
     Else (feature 0 > 4.05)
      If (feature 0 <= 5.15)
       If (feature 0 <= 4.85)
        If (feature 0 <= 4.55)
         Predict: 2.809090909090909
        Else (feature 0 > 4.55)
         Predict: 3.0250000000000004
       Else (feature 0 > 4.85)
        If (feature 0 <= 5.05)
         Predict: 2.6666666666666665
        Else (feature 0 > 5.05)
         Predict: 2.8333333333333335
      Else (feature 0 > 5.15)
       If (feature 0 <= 5.45)
        If (feature 0 <= 5.25)
         Predict: 3.0
        Else (feature 0 > 5.25)
         Predict: 3.4000000000000004
       Else (feature 0 > 5.45)
        If (feature 0 <= 5.65)
         Predict: 3.0300000000000002
        Else (feature 0 > 5.65)
         Predict: 2.899999999999999
  Tree 10 (weight 1.0):
    If (feature 0 <= 2.45)
     If (feature 0 <= 1.25)
      Predict: 3.675
     Else (feature 0 > 1.25)
      If (feature 0 <= 1.65)
       If (feature 0 <= 1.55)
        If (feature 0 <= 1.45)
         Predict: 3.277272727272727
        Else (feature 0 > 1.45)
         Predict: 3.5099999999999993
       Else (feature 0 > 1.55)
        Predict: 3.1400000000000006
      Else (feature 0 > 1.65)
       If (feature 0 <= 1.7999999999999998)
        Predict: 3.55
       Else (feature 0 > 1.7999999999999998)
        Predict: 3.6
    Else (feature 0 > 2.45)
     If (feature 0 <= 4.05)
      If (feature 0 <= 3.95)
       If (feature 0 <= 3.4)
        Predict: 2.4
       Else (feature 0 > 3.4)
        If (feature 0 <= 3.55)
         Predict: 2.6
        Else (feature 0 > 3.55)
         Predict: 2.5
      Else (feature 0 > 3.95)
       Predict: 2.4
     Else (feature 0 > 4.05)
      If (feature 0 <= 5.15)
       If (feature 0 <= 4.75)
        If (feature 0 <= 4.65)
         Predict: 2.886206896551724
        Else (feature 0 > 4.65)
         Predict: 3.2166666666666663
       Else (feature 0 > 4.75)
        If (feature 0 <= 5.05)
         Predict: 2.6
        Else (feature 0 > 5.05)
         Predict: 2.9000000000000004
      Else (feature 0 > 5.15)
       If (feature 0 <= 5.55)
        If (feature 0 <= 5.45)
         Predict: 3.022222222222222
        Else (feature 0 > 5.45)
         Predict: 3.0666666666666664
       Else (feature 0 > 5.55)
        If (feature 0 <= 6.35)
         Predict: 3.1666666666666665
        Else (feature 0 > 6.35)
         Predict: 3.0500000000000007
  Tree 11 (weight 1.0):
    If (feature 0 <= 2.45)
     If (feature 0 <= 1.65)
      If (feature 0 <= 1.55)
       If (feature 0 <= 1.25)
        Predict: 3.6
       Else (feature 0 > 1.25)
        If (feature 0 <= 1.45)
         Predict: 3.444827586206897
        Else (feature 0 > 1.45)
         Predict: 3.5066666666666664
      Else (feature 0 > 1.55)
       Predict: 3.2666666666666657
     Else (feature 0 > 1.65)
      If (feature 0 <= 1.7999999999999998)
       Predict: 3.6555555555555554
      Else (feature 0 > 1.7999999999999998)
       Predict: 3.6666666666666665
    Else (feature 0 > 2.45)
     If (feature 0 <= 5.05)
      If (feature 0 <= 4.05)
       If (feature 0 <= 3.6500000000000004)
        If (feature 0 <= 3.55)
         Predict: 2.55
        Else (feature 0 > 3.55)
         Predict: 2.9000000000000004
       Else (feature 0 > 3.6500000000000004)
        If (feature 0 <= 3.95)
         Predict: 2.5333333333333337
        Else (feature 0 > 3.95)
         Predict: 2.5125
      Else (feature 0 > 4.05)
       If (feature 0 <= 4.85)
        If (feature 0 <= 4.45)
         Predict: 2.86
        Else (feature 0 > 4.45)
         Predict: 2.9352941176470577
       Else (feature 0 > 4.85)
        If (feature 0 <= 4.95)
         Predict: 2.657142857142857
        Else (feature 0 > 4.95)
         Predict: 2.3500000000000005
     Else (feature 0 > 5.05)
      If (feature 0 <= 6.35)
       If (feature 0 <= 5.45)
        If (feature 0 <= 5.25)
         Predict: 3.0142857142857147
        Else (feature 0 > 5.25)
         Predict: 3.3000000000000007
       Else (feature 0 > 5.45)
        If (feature 0 <= 5.85)
         Predict: 2.9789473684210526
        Else (feature 0 > 5.85)
         Predict: 3.0999999999999996
      Else (feature 0 > 6.35)
       Predict: 3.5333333333333337
  Tree 12 (weight 1.0):
    If (feature 0 <= 2.45)
     If (feature 0 <= 1.45)
      If (feature 0 <= 1.35)
       If (feature 0 <= 1.25)
        Predict: 3.5
       Else (feature 0 > 1.25)
        Predict: 3.383333333333333
      Else (feature 0 > 1.35)
       Predict: 3.284615384615385
     Else (feature 0 > 1.45)
      If (feature 0 <= 1.65)
       If (feature 0 <= 1.55)
        Predict: 3.676923076923077
       Else (feature 0 > 1.55)
        Predict: 3.329999999999999
      Else (feature 0 > 1.65)
       If (feature 0 <= 1.7999999999999998)
        Predict: 3.7599999999999993
       Else (feature 0 > 1.7999999999999998)
        Predict: 3.8000000000000007
    Else (feature 0 > 2.45)
     If (feature 0 <= 4.05)
      If (feature 0 <= 3.55)
       If (feature 0 <= 3.4)
        If (feature 0 <= 3.15)
         Predict: 2.5
        Else (feature 0 > 3.15)
         Predict: 2.3
       Else (feature 0 > 3.4)
        Predict: 2.0
      Else (feature 0 > 3.55)
       If (feature 0 <= 3.6500000000000004)
        Predict: 2.9
       Else (feature 0 > 3.6500000000000004)
        If (feature 0 <= 3.75)
         Predict: 2.4
        Else (feature 0 > 3.75)
         Predict: 2.5
     Else (feature 0 > 4.05)
      If (feature 0 <= 6.35)
       If (feature 0 <= 5.65)
        If (feature 0 <= 4.45)
         Predict: 2.7615384615384615
        Else (feature 0 > 4.45)
         Predict: 2.8961538461538456
       Else (feature 0 > 5.65)
        If (feature 0 <= 6.05)
         Predict: 3.145454545454545
        Else (feature 0 > 6.05)
         Predict: 2.875
      Else (feature 0 > 6.35)
       Predict: 3.5333333333333314
  Tree 13 (weight 1.0):
    If (feature 0 <= 2.45)
     If (feature 0 <= 1.65)
      If (feature 0 <= 1.55)
       If (feature 0 <= 1.25)
        Predict: 3.5
       Else (feature 0 > 1.25)
        If (feature 0 <= 1.35)
         Predict: 3.2199999999999998
        Else (feature 0 > 1.35)
         Predict: 3.4099999999999997
      Else (feature 0 > 1.55)
       Predict: 3.2909090909090897
     Else (feature 0 > 1.65)
      If (feature 0 <= 1.7999999999999998)
       Predict: 3.6666666666666665
      Else (feature 0 > 1.7999999999999998)
       Predict: 3.4000000000000004
    Else (feature 0 > 2.45)
     If (feature 0 <= 4.05)
      If (feature 0 <= 3.95)
       If (feature 0 <= 3.75)
        If (feature 0 <= 3.4)
         Predict: 2.4
        Else (feature 0 > 3.4)
         Predict: 2.4000000000000004
       Else (feature 0 > 3.75)
        Predict: 2.6
      Else (feature 0 > 3.95)
       Predict: 2.3714285714285723
     Else (feature 0 > 4.05)
      If (feature 0 <= 4.45)
       If (feature 0 <= 4.35)
        If (feature 0 <= 4.15)
         Predict: 2.85
        Else (feature 0 > 4.15)
         Predict: 2.8333333333333335
       Else (feature 0 > 4.35)
        Predict: 2.6199999999999997
      Else (feature 0 > 4.45)
       If (feature 0 <= 4.85)
        If (feature 0 <= 4.65)
         Predict: 2.972727272727273
        Else (feature 0 > 4.65)
         Predict: 3.0428571428571423
       Else (feature 0 > 4.85)
        If (feature 0 <= 5.15)
         Predict: 2.8434782608695657
        Else (feature 0 > 5.15)
         Predict: 2.9878787878787887
  Tree 14 (weight 1.0):
    If (feature 0 <= 2.45)
     If (feature 0 <= 1.35)
      If (feature 0 <= 1.25)
       Predict: 3.733333333333333
      Else (feature 0 > 1.25)
       Predict: 3.9000000000000004
     Else (feature 0 > 1.35)
      If (feature 0 <= 1.55)
       If (feature 0 <= 1.45)
        Predict: 3.3642857142857143
       Else (feature 0 > 1.45)
        Predict: 3.5250000000000004
      Else (feature 0 > 1.55)
       If (feature 0 <= 1.65)
        Predict: 3.2333333333333334
       Else (feature 0 > 1.65)
        If (feature 0 <= 1.7999999999999998)
         Predict: 3.4749999999999996
        Else (feature 0 > 1.7999999999999998)
         Predict: 3.3999999999999986
    Else (feature 0 > 2.45)
     If (feature 0 <= 4.05)
      If (feature 0 <= 3.55)
       If (feature 0 <= 3.4)
        Predict: 2.4
       Else (feature 0 > 3.4)
        Predict: 2.1999999999999997
      Else (feature 0 > 3.55)
       If (feature 0 <= 3.6500000000000004)
        Predict: 2.9
       Else (feature 0 > 3.6500000000000004)
        If (feature 0 <= 3.75)
         Predict: 2.4
        Else (feature 0 > 3.75)
         Predict: 2.5624999999999996
     Else (feature 0 > 4.05)
      If (feature 0 <= 5.15)
       If (feature 0 <= 4.75)
        If (feature 0 <= 4.65)
         Predict: 2.868181818181818
        Else (feature 0 > 4.65)
         Predict: 3.150000000000002
       Else (feature 0 > 4.75)
        If (feature 0 <= 5.05)
         Predict: 2.6100000000000003
        Else (feature 0 > 5.05)
         Predict: 2.8714285714285723
      Else (feature 0 > 5.15)
       If (feature 0 <= 6.35)
        If (feature 0 <= 6.05)
         Predict: 3.0095238095238095
        Else (feature 0 > 6.05)
         Predict: 2.933333333333335
       Else (feature 0 > 6.35)
        Predict: 3.0666666666666678
  Tree 15 (weight 1.0):
    If (feature 0 <= 2.45)
     If (feature 0 <= 1.45)
      If (feature 0 <= 1.35)
       If (feature 0 <= 1.25)
        Predict: 3.3333333333333335
       Else (feature 0 > 1.25)
        Predict: 3.2285714285714286
      Else (feature 0 > 1.35)
       Predict: 3.35
     Else (feature 0 > 1.45)
      If (feature 0 <= 1.7999999999999998)
       If (feature 0 <= 1.55)
        Predict: 3.542857142857143
       Else (feature 0 > 1.55)
        If (feature 0 <= 1.65)
         Predict: 3.342857142857143
        Else (feature 0 > 1.65)
         Predict: 3.549999999999999
      Else (feature 0 > 1.7999999999999998)
       Predict: 3.799999999999997
    Else (feature 0 > 2.45)
     If (feature 0 <= 5.15)
      If (feature 0 <= 4.05)
       If (feature 0 <= 3.95)
        If (feature 0 <= 3.15)
         Predict: 2.5
        Else (feature 0 > 3.15)
         Predict: 2.6833333333333336
       Else (feature 0 > 3.95)
        Predict: 2.450000000000001
      Else (feature 0 > 4.05)
       If (feature 0 <= 4.85)
        If (feature 0 <= 4.45)
         Predict: 2.88
        Else (feature 0 > 4.45)
         Predict: 2.9555555555555557
       Else (feature 0 > 4.85)
        If (feature 0 <= 5.05)
         Predict: 2.4714285714285715
        Else (feature 0 > 5.05)
         Predict: 2.84
     Else (feature 0 > 5.15)
      If (feature 0 <= 5.85)
       If (feature 0 <= 5.55)
        If (feature 0 <= 5.25)
         Predict: 3.0
        Else (feature 0 > 5.25)
         Predict: 3.0545454545454547
       Else (feature 0 > 5.55)
        If (feature 0 <= 5.65)
         Predict: 2.9333333333333336
        Else (feature 0 > 5.65)
         Predict: 2.925
      Else (feature 0 > 5.85)
       If (feature 0 <= 6.05)
        Predict: 3.1833333333333336
       Else (feature 0 > 6.05)
        If (feature 0 <= 6.35)
         Predict: 3.0
        Else (feature 0 > 6.35)
         Predict: 3.1500000000000004
  Tree 16 (weight 1.0):
    If (feature 0 <= 2.45)
     If (feature 0 <= 1.65)
      If (feature 0 <= 1.55)
       If (feature 0 <= 1.45)
        If (feature 0 <= 1.25)
         Predict: 3.4857142857142853
        Else (feature 0 > 1.25)
         Predict: 3.4294117647058817
       Else (feature 0 > 1.45)
        Predict: 3.7454545454545456
      Else (feature 0 > 1.55)
       Predict: 3.1874999999999982
     Else (feature 0 > 1.65)
      If (feature 0 <= 1.7999999999999998)
       Predict: 3.633333333333333
      Else (feature 0 > 1.7999999999999998)
       Predict: 3.799999999999997
    Else (feature 0 > 2.45)
     If (feature 0 <= 4.05)
      If (feature 0 <= 3.75)
       If (feature 0 <= 3.15)
        Predict: 2.5
       Else (feature 0 > 3.15)
        If (feature 0 <= 3.4)
         Predict: 2.3666666666666667
        Else (feature 0 > 3.4)
         Predict: 2.4000000000000004
      Else (feature 0 > 3.75)
       If (feature 0 <= 3.95)
        Predict: 2.5
       Else (feature 0 > 3.95)
        Predict: 2.56
     Else (feature 0 > 4.05)
      If (feature 0 <= 5.15)
       If (feature 0 <= 4.95)
        If (feature 0 <= 4.55)
         Predict: 2.876470588235294
        Else (feature 0 > 4.55)
         Predict: 3.133333333333332
       Else (feature 0 > 4.95)
        If (feature 0 <= 5.05)
         Predict: 2.4
        Else (feature 0 > 5.05)
         Predict: 2.9214285714285713
      Else (feature 0 > 5.15)
       If (feature 0 <= 6.35)
        If (feature 0 <= 5.25)
         Predict: 3.0
        Else (feature 0 > 5.25)
         Predict: 3.1241379310344826
       Else (feature 0 > 6.35)
        Predict: 2.6666666666666665
  Tree 17 (weight 1.0):
    If (feature 0 <= 2.45)
     If (feature 0 <= 1.35)
      If (feature 0 <= 1.25)
       Predict: 3.4000000000000004
      Else (feature 0 > 1.25)
       Predict: 2.7199999999999998
     Else (feature 0 > 1.35)
      If (feature 0 <= 1.45)
       Predict: 3.3894736842105266
      Else (feature 0 > 1.45)
       If (feature 0 <= 1.55)
        Predict: 3.6625
       Else (feature 0 > 1.55)
        If (feature 0 <= 1.7999999999999998)
         Predict: 3.4142857142857146
        Else (feature 0 > 1.7999999999999998)
         Predict: 3.8000000000000007
    Else (feature 0 > 2.45)
     If (feature 0 <= 5.15)
      If (feature 0 <= 4.05)
       If (feature 0 <= 3.75)
        If (feature 0 <= 3.15)
         Predict: 2.5
        Else (feature 0 > 3.15)
         Predict: 2.3499999999999996
       Else (feature 0 > 3.75)
        If (feature 0 <= 3.95)
         Predict: 2.4999999999999996
        Else (feature 0 > 3.95)
         Predict: 2.3999999999999995
      Else (feature 0 > 4.05)
       If (feature 0 <= 5.05)
        If (feature 0 <= 4.95)
         Predict: 2.8000000000000003
        Else (feature 0 > 4.95)
         Predict: 2.3800000000000012
       Else (feature 0 > 5.05)
        Predict: 2.8384615384615377
     Else (feature 0 > 5.15)
      If (feature 0 <= 6.35)
       If (feature 0 <= 5.65)
        If (feature 0 <= 5.55)
         Predict: 3.0777777777777775
        Else (feature 0 > 5.55)
         Predict: 2.766666666666666
       Else (feature 0 > 5.65)
        If (feature 0 <= 6.05)
         Predict: 3.2
        Else (feature 0 > 6.05)
         Predict: 2.8000000000000007
      Else (feature 0 > 6.35)
       Predict: 3.5599999999999996
  Tree 18 (weight 1.0):
    If (feature 0 <= 2.45)
     If (feature 0 <= 1.35)
      If (feature 0 <= 1.25)
       Predict: 3.4000000000000004
      Else (feature 0 > 1.25)
       Predict: 3.1090909090909093
     Else (feature 0 > 1.35)
      If (feature 0 <= 1.7999999999999998)
       If (feature 0 <= 1.65)
        If (feature 0 <= 1.55)
         Predict: 3.4257142857142857
        Else (feature 0 > 1.55)
         Predict: 3.3125
       Else (feature 0 > 1.65)
        Predict: 3.5124999999999993
      Else (feature 0 > 1.7999999999999998)
       Predict: 3.799999999999997
    Else (feature 0 > 2.45)
     If (feature 0 <= 4.05)
      If (feature 0 <= 3.4)
       If (feature 0 <= 3.15)
        Predict: 2.5
       Else (feature 0 > 3.15)
        Predict: 2.375
      Else (feature 0 > 3.4)
       If (feature 0 <= 3.6500000000000004)
        Predict: 2.9
       Else (feature 0 > 3.6500000000000004)
        If (feature 0 <= 3.95)
         Predict: 2.6
        Else (feature 0 > 3.95)
         Predict: 2.4799999999999995
     Else (feature 0 > 4.05)
      If (feature 0 <= 5.85)
       If (feature 0 <= 5.15)
        If (feature 0 <= 4.95)
         Predict: 2.9
        Else (feature 0 > 4.95)
         Predict: 2.719999999999999
       Else (feature 0 > 5.15)
        If (feature 0 <= 5.55)
         Predict: 3.0499999999999994
        Else (feature 0 > 5.55)
         Predict: 2.8545454545454536
      Else (feature 0 > 5.85)
       If (feature 0 <= 6.35)
        If (feature 0 <= 6.05)
         Predict: 3.0999999999999996
        Else (feature 0 > 6.05)
         Predict: 3.06
       Else (feature 0 > 6.35)
        Predict: 3.16
  Tree 19 (weight 1.0):
    If (feature 0 <= 2.45)
     If (feature 0 <= 1.45)
      If (feature 0 <= 1.25)
       Predict: 3.5142857142857147
      Else (feature 0 > 1.25)
       If (feature 0 <= 1.35)
        Predict: 3.144444444444444
       Else (feature 0 > 1.35)
        Predict: 3.241666666666666
     Else (feature 0 > 1.45)
      If (feature 0 <= 1.55)
       Predict: 3.5357142857142856
      Else (feature 0 > 1.55)
       If (feature 0 <= 1.65)
        Predict: 3.375
       Else (feature 0 > 1.65)
        If (feature 0 <= 1.7999999999999998)
         Predict: 3.5999999999999996
        Else (feature 0 > 1.7999999999999998)
         Predict: 3.4000000000000004
    Else (feature 0 > 2.45)
     If (feature 0 <= 4.55)
      If (feature 0 <= 4.05)
       If (feature 0 <= 3.4)
        If (feature 0 <= 3.15)
         Predict: 2.5
        Else (feature 0 > 3.15)
         Predict: 2.3
       Else (feature 0 > 3.4)
        If (feature 0 <= 3.6500000000000004)
         Predict: 2.8000000000000003
        Else (feature 0 > 3.6500000000000004)
         Predict: 2.576470588235294
      Else (feature 0 > 4.05)
       If (feature 0 <= 4.45)
        If (feature 0 <= 4.35)
         Predict: 2.8642857142857143
        Else (feature 0 > 4.35)
         Predict: 3.0250000000000004
       Else (feature 0 > 4.45)
        Predict: 2.7299999999999995
     Else (feature 0 > 4.55)
      If (feature 0 <= 5.85)
       If (feature 0 <= 4.85)
        If (feature 0 <= 4.65)
         Predict: 3.0
        Else (feature 0 > 4.65)
         Predict: 3.1333333333333333
       Else (feature 0 > 4.85)
        If (feature 0 <= 5.05)
         Predict: 2.8285714285714287
        Else (feature 0 > 5.05)
         Predict: 3.003225806451613
      Else (feature 0 > 5.85)
       If (feature 0 <= 6.35)
        If (feature 0 <= 6.05)
         Predict: 3.216666666666667
        Else (feature 0 > 6.05)
         Predict: 3.320000000000001
       Else (feature 0 > 6.35)
        Predict: 3.0888888888888895
 
